19 200
NP -0.0041913227 -0.033728726 -0.0011084068 0.038681056 -0.08414805 0.005182623 0.028033162 0.10243639 -0.0849008 0.01843352 0.009807997 0.022650328 -0.04788736 0.07878704 -0.04107106 -0.11001736 0.05792108 0.06840991 -0.018705662 -0.04188081 -0.02578749 -0.052759383 0.03166794 0.048625115 0.08856691 -0.04891745 -0.032322206 0.1485506 -0.09974853 0.05111903 -0.034015335 0.059574764 0.005377563 -0.06709954 -0.034673303 -0.042358216 -0.040630415 -0.119268924 -0.0042905933 -0.0059576533 -0.0634407 0.03872238 -0.056237113 -0.06843252 -0.0035817183 -0.016041052 -0.015147108 0.03992077 -0.013899514 0.050889976 -0.031674728 0.004847237 -0.059493866 -0.02068894 0.017225623 -0.119479954 -0.030205794 -0.10815208 -0.049988985 0.039168786 0.012985324 -0.04497524 -0.009660121 -0.082994424 -0.025317334 0.005002082 0.09509772 0.056047928 -0.098923534 0.050113346 0.06178178 0.1377089 -0.038960226 -0.08464775 0.05416642 0.08134412 0.08351816 0.05280274 -0.03703631 -0.09196207 -0.020184861 -0.015679114 0.013062163 0.115072764 -0.09236564 -0.06464785 0.106451735 -0.08449191 -0.034733023 0.06824618 -0.03587812 -0.0108707715 0.04131708 -0.0991723 0.12227178 0.037170153 0.0040710215 -0.06386751 0.07790499 0.06401633 -0.14271213 0.040556125 0.029340997 0.0037642682 0.03578228 -0.051651865 0.015282569 0.027813198 -0.08620254 -0.25184152 0.02793368 -0.059831545 -0.1414126 -0.050568093 0.15130463 0.09749361 0.19783007 0.03224368 -0.18335974 -0.031433478 0.00895425 -0.06325786 0.3288831 -0.025700822 -0.024625912 0.11033929 -0.060575083 0.045488607 -0.015480063 0.22765985 0.21707052 -0.12783985 -0.06460698 -0.23179701 0.11834439 0.1360408 0.15989912 0.10442254 0.069269314 0.18926889 0.11342053 -0.06807911 -0.080519624 -0.036638323 0.010915081 0.036156278 0.07308992 0.030414727 0.033964936 0.013331764 0.07368066 -0.12357132 -0.04901054 -0.009222458 -0.090372734 0.10584281 0.065420374 0.0741936 -0.038730193 0.041396603 -0.01382197 0.076062866 0.035270225 -0.018494194 0.046696186 0.051511947 0.070149064 -0.01905782 0.039954264 -0.012861455 0.021012118 -0.081863835 0.033494666 0.121510476 -0.044148717 -0.070840135 -0.109735295 -0.0074897744 0.026885286 -0.04478815 -0.05348712 -0.0004279467 0.070305444 -0.06987683 0.004614023 -0.072258435 0.056774028 0.019907888 -0.001051197 -0.14971882 0.040377863 0.011771826 -0.044490367 -0.09642303 0.05260854 0.028223068 0.1287524 -0.18338111 -0.1566671 -0.0012808805
VP -0.055887144 0.029013887 -0.023878964 -0.032945264 -0.03556937 0.032902576 -0.043109782 0.093549125 -0.057355173 0.037138283 -0.02910826 -0.0024203723 -0.05560746 0.009118021 -0.051102832 -0.090049356 0.045007143 0.06930432 -0.05935541 -0.09983501 -0.0325661 -0.05753993 0.015735524 0.037203018 0.046659686 -0.04597165 0.0662511 0.15279774 -0.14332978 0.073793255 -0.064305946 -0.023042506 0.013956802 -0.14208359 -0.024208423 -0.085983805 0.030436771 -0.045163855 -0.011117461 0.060340002 -0.0935549 0.041755512 -0.1412767 0.057927694 0.03870685 -0.048612814 0.022592813 0.04608942 -0.00030200416 0.060232468 -0.008151947 0.06605293 -0.0030443624 -0.08411682 -0.00073241314 -0.133279 -0.02810587 -0.098584846 -0.065728396 0.066796556 0.025739262 -0.081417486 -0.00831025 -0.058533907 -0.03938777 0.034929693 0.13350123 0.08689277 -0.06443138 0.09240955 0.060196225 0.12150681 -0.008598121 -0.07869697 0.002926139 0.13887712 0.1353536 0.03133199 0.021572625 -0.10300417 -0.052603472 -0.014865865 0.013961431 0.045798853 -0.112373576 -0.05516747 0.04573082 -0.05228818 0.009142332 0.03935731 0.005176755 0.0149833085 0.102486946 -0.09019464 0.100916915 -0.0009397133 -0.00093591266 -0.002581135 0.070850804 0.023675084 -0.20994405 0.1282965 -0.0089753 -0.06864387 0.063573875 -0.09562962 -0.008016029 0.096375674 -0.034297917 -0.13767692 0.026978271 -0.038058445 -0.13368261 -0.058599237 0.11498232 -0.0064391093 0.07591361 0.029700344 -0.10597396 0.048038002 -0.007981878 -0.090704136 0.25299966 0.070634924 -0.031105386 0.025653305 0.005952996 0.008475402 0.022942314 0.090269975 0.15167835 -0.12043695 -0.06988513 -0.12635577 0.12777536 0.1187974 0.17809893 0.06662528 0.045031164 0.13894017 0.06644636 -0.085890554 -0.055150665 -0.033672858 -0.003955955 0.057400923 0.08975082 0.032219276 -0.03217816 -0.03001088 0.13194461 -0.11665314 -0.041106034 0.03236596 -0.104330964 0.046324994 0.14050862 0.056207955 -0.033756062 -0.0040665786 -0.013603555 0.082696766 0.07138219 -0.074362405 0.07094663 -0.018213311 0.11708246 0.028955221 0.025185036 -0.020467767 0.008565573 -0.06635657 0.024392474 0.16260831 0.012365482 -0.016565057 -0.16823946 0.052079167 -0.004519593 0.0093493005 -0.026845548 0.027069645 0.11080932 -0.072982684 -0.01929581 -0.047506917 0.035864115 0.0009676226 -0.014962751 -0.09000168 0.023542158 0.0478317 -0.011848927 -0.14451988 0.111013316 0.059031084 0.14614336 -0.16639447 -0.14796107 -0.019361658
PP -0.031517513 -0.03567124 -0.048822373 -0.07181717 0.017984213 0.075548716 -0.060736474 0.035992943 -0.019259075 0.044452447 -0.084424905 0.015775805 -0.0930889 0.058770824 -0.07866838 -0.10192077 0.032125704 0.12642299 0.046579383 -0.11718574 -0.019975934 -0.10514866 0.07933106 0.11315866 0.0372177 0.011037586 0.020354291 0.15810294 -0.18492275 0.066249214 0.022673333 0.0046218457 0.024924597 -0.17907953 -0.016458327 -0.13289294 -0.024702456 -0.044163253 -0.03705715 -0.00800276 -0.04404245 -0.037042327 -0.17008366 0.12123737 0.05783773 -0.076713465 0.0012251956 -0.042126723 0.0129175335 0.0048085772 0.035865907 -0.016897399 0.008442926 -0.10931437 -0.050966054 -0.18266441 -0.12541956 -0.18295828 -0.064351484 -0.013172821 0.020644302 -0.11557885 0.10025549 -0.0013722961 -0.11335649 0.097988956 0.16521235 0.11791459 -0.115250506 0.11999966 0.04667285 0.18194482 -0.026586182 -0.0210555 0.06762514 0.13475628 0.14936337 0.09506534 0.02068479 -0.1206647 -0.113653496 -0.08633532 -0.017629394 0.055271186 -0.17442504 -0.11934037 0.15576608 -0.071063824 -0.09904658 -0.010598282 0.042736124 -0.013828682 0.14809184 -0.08078088 0.11516043 -0.041585136 0.12013127 0.010810043 0.070192814 0.0845459 -0.21888064 0.17577003 0.031759847 -0.068543 -0.06764053 -0.10435329 0.036065545 0.077154435 -0.07450829 -0.13197228 -0.026374063 0.0067084557 -0.09069603 -0.12681794 0.08314966 -0.05968236 0.04480646 -0.030209804 -0.09451513 -0.024081182 -0.038634434 -0.029965954 0.19009373 0.09029806 -0.092140146 0.04208333 0.009557088 -0.08358946 0.024382403 0.12553136 0.081924945 -0.08772148 -0.06101079 -0.16338141 0.08551003 0.07839457 0.055910897 0.056791537 0.012966053 0.01655599 0.10524353 -0.097839855 -0.027760837 -0.0019522398 0.016480422 -0.05037559 0.013163728 0.040461674 0.0038832081 -0.035893228 0.053440426 -0.0945449 0.018467586 0.02738193 -0.12502012 0.058669798 0.11748373 -0.002500986 -0.06689995 -0.033834573 0.08511561 0.03237951 0.08221685 -0.02005178 0.06444701 0.019399676 0.049799994 0.06735608 -0.03595446 -0.084912784 0.032583233 0.0072558583 0.034968816 0.112190396 0.010433222 0.074096955 -0.09600791 0.0688345 -0.0035162594 0.017923854 0.013177536 -0.040421985 0.09319402 -0.0733136 0.0025976868 -0.06550319 0.045508042 0.11746742 -0.024695314 -0.058675766 0.11857217 0.06561293 -0.082702085 -0.07139596 0.080784686 0.053436216 0.073477626 -0.1467276 -0.05409019 -0.04822569
SQ 0.23368 -0.04899289 -0.08445182 0.02051985 0.032509465 0.06062501 0.1630595 0.14368935 -0.16472578 -0.014987726 0.18459092 -0.017224973 -0.049053255 0.2923503 -0.17907077 -0.038287643 0.29895425 0.2779831 -0.03076361 -0.43391657 0.08425098 -0.08326255 0.3219647 0.06311796 0.088830985 0.052606016 0.079994656 -0.0325894 -0.19155297 -0.05583979 0.14065371 0.15026675 0.02790244 -0.16446897 -0.20972982 -0.035791043 -0.049590148 -0.20267345 -0.2419842 -0.22729233 0.12693538 -0.1949148 -0.01283183 -0.02054883 0.22499628 0.2590095 -0.3191335 -0.25532514 -0.076343276 -0.025171138 -0.013514019 -0.19229703 -0.25474808 -0.02110743 -0.28059623 -0.40526208 -0.10125703 -0.43001968 -0.35179803 -0.22130187 0.019128382 -0.21701221 0.2253687 0.03089029 -0.160875 0.30578542 -0.10478007 -0.016664475 -0.21988483 -0.019068299 -0.018874453 0.32073513 -0.10500279 0.09555118 0.2039985 -0.06390641 0.3191863 0.24977408 0.01026992 0.09241488 0.09349478 -0.26269355 -0.17891246 -0.0018242288 -0.1720671 -0.2030637 0.29531392 -0.16063695 -0.17119114 -0.015155333 -0.03483303 0.06750449 0.02805641 0.0049827094 0.07516377 -0.013481975 0.20672207 -0.16849796 -0.064326875 0.19861673 0.038684607 0.023884341 0.34380648 0.17926137 -0.088996336 -0.10003872 0.14982666 0.06041252 -0.15837848 -0.2190227 0.00035182765 -0.076712206 0.105477795 -0.091218375 0.03042902 -0.06668249 0.10233504 -0.018370349 -0.20377679 -0.16980012 -0.02749798 0.1021669 0.14460097 -0.21299252 -0.35277548 0.1497602 -0.01972855 0.19813448 -0.13912646 0.20723061 -0.15895218 -0.038958937 -0.15161577 -0.2524018 -0.017490625 0.05614216 0.01682104 -0.07419868 -0.24519593 0.1713752 0.3547385 -0.14168075 -0.0640984 0.072579615 0.26848897 -0.11374161 -0.14050284 -0.09176344 0.14885826 -0.03333785 -0.1979286 -0.025102649 0.32793263 -0.19672263 -0.17868218 0.22517575 -0.19622712 0.113776945 0.011216671 0.10610748 0.20802781 -0.113483444 -0.14941798 0.19678603 0.056536395 0.12638436 -0.24249311 0.29757303 -0.038135193 -0.12424339 0.09376127 -0.0012565884 0.17425856 0.0027121105 -0.10195531 0.06672157 0.19698104 -0.12386568 0.012808838 -0.13991675 -0.19424187 0.017346658 -0.23206249 0.01729573 -0.02026559 -0.041643582 0.10683815 0.24992812 0.17888597 0.010182765 0.071450226 -0.16177464 -0.23994152 0.058872398 -0.004735348 0.11615187 0.02274814 -0.15816383 0.09753745 -0.20299603
QP -0.36386275 0.31872356 0.11535571 0.40529698 0.14585276 0.10300985 0.32616282 -0.1564107 -0.18831466 0.193962 0.12917888 -0.12763365 0.20338286 -0.01385675 0.2028453 -0.08815559 -0.14080219 0.01661503 -0.4116259 -0.25985217 0.106246315 0.36732656 0.37104174 -0.16485833 0.2462676 -0.0024327575 -0.018957948 -0.15810777 -0.20813528 -0.28962 0.101674505 -0.2430847 0.23550524 0.11028162 -0.12616621 0.060264055 0.021631313 0.17270519 0.12799145 -0.32459933 -0.21111172 0.20226668 -0.17369129 -0.07837712 0.049955066 -0.023619922 -0.07170429 0.23905247 -0.072133414 0.03376286 -0.052770793 0.07135119 -0.050199036 -0.25925297 0.15036763 -0.29804096 0.122981235 -0.19390808 -0.008299064 -0.13950679 -0.20484981 -0.24361958 0.33484834 -0.20124924 -0.3923567 0.108645685 -0.013519758 0.3901556 -0.47278303 0.20830837 -0.21281995 0.26983777 0.18363142 0.047796927 -0.19342299 -0.1343415 0.004240915 -0.18201043 -0.32081306 -0.26375577 -0.11538189 -0.322049 0.22968619 0.08017088 0.046044208 -0.015790975 0.215634 -0.41602787 -0.17334767 0.23744889 -0.20238608 0.08568515 0.28816998 -0.1403763 0.6187247 0.35759547 -0.025247194 0.18664189 0.23087862 -0.012753346 -0.55193037 -0.058605615 -0.14834674 0.32364774 0.042255722 -0.40372023 -0.11096257 0.33573106 -0.1659513 -0.3219544 0.06725381 -0.25705484 -0.1933453 0.060753617 0.015988795 0.35424858 0.3141616 -0.20973054 0.0729742 -0.15655622 0.06933283 0.071193986 0.1604761 -0.087383695 0.31327718 -0.019127399 -0.28132665 0.3922386 -0.09986898 0.0071183285 0.5353939 0.0043978957 0.065538235 0.105556 -0.127381 0.32920957 0.3094569 0.23420101 0.18131244 0.45815855 0.45443824 0.014116097 -0.29065838 -0.19879729 0.011763062 0.23276903 -0.03925731 0.17339258 0.1576918 0.18756989 0.29387674 0.07359288 -0.069369465 0.30657873 -0.034956437 -0.07061423 0.10234598 0.046135645 0.15028396 0.08933914 -0.18294032 0.38010803 0.28702557 -0.13132551 -0.00068772177 -0.15380329 -0.033835843 -0.29356202 0.1990041 -0.12874211 0.096807405 -0.020458706 -0.024012556 -0.10589641 0.046750426 -0.3231626 -0.0945536 -0.13915992 0.31253508 0.0013404507 -0.07360471 -0.074579544 0.12223517 0.13800019 -0.011438938 -0.25590026 -0.15509352 -0.0019589278 0.22132407 0.032569986 -0.26318154 0.29677886 0.16487597 0.016555987 0.3436307 -0.10107989 -0.06213392 0.034867622 0.13128877 0.12516783
ADJP 0.067066826 0.02592445 0.21371703 -0.1527191 -0.09210567 -0.051533487 -0.012923839 0.28863487 -0.09999071 -0.15089822 0.16956599 -0.17113283 0.066671886 -0.057075325 -0.037841395 0.003193563 0.09752557 0.0548675 -0.062502764 -0.38356408 -0.035269246 -0.0079667475 0.20759647 0.0021142147 -0.077786565 0.09102716 0.06502154 0.01200326 -0.054332543 0.098113865 -0.14168227 -0.048365418 0.21757714 0.0032842238 0.03046722 -0.012654726 0.09094734 -0.08207437 -0.13674602 -0.010595609 -0.10767655 0.036476873 -0.26864675 0.18936102 -0.06293068 -0.18068594 -0.05160423 -0.03592486 -0.13871923 0.10657731 -0.06619926 -0.008863832 -0.14099896 -0.07354594 0.042915784 -0.15300387 -0.09379714 -0.16174357 0.034217298 0.120631926 -0.17798127 -0.16387475 0.10661975 0.0012679778 -0.23578218 0.16460595 -0.085722625 -0.0727164 -0.028802648 0.018620372 0.12594387 0.3030432 -0.051003687 0.080038406 0.029524297 0.23388855 0.31554154 -0.16459744 -0.052093577 0.043397035 0.031149806 0.11036534 0.095637776 0.16860868 -0.3198387 0.035423014 0.004541919 -0.039515853 0.055320572 0.13055028 0.16059916 0.06339993 0.15719096 0.039183732 0.051671293 0.018342298 0.19654132 -0.08573228 0.1089493 -0.054216523 -0.040704053 0.3303634 0.0521689 0.06225778 0.07527336 -0.2642847 -0.049986925 0.21462312 -0.09860617 -0.08673081 0.06713394 0.026274653 -0.093535595 -0.079492375 0.16521263 -0.123555936 -0.016386412 -0.048998337 -0.08254184 -0.12627888 -0.040909063 -0.19151223 0.13715588 -0.1053845 -0.15898325 -0.11371724 -0.14143972 0.1104884 0.07209274 0.019795839 0.017012814 -0.1419065 -0.024254337 -0.05044438 0.105970666 0.023311129 0.056698803 0.04643345 -0.11780711 -0.053832043 -0.07613246 -0.1369532 0.02426711 0.124466665 -0.031580474 -0.044186775 0.17230135 -0.016145336 -0.047744222 0.091310106 0.15661827 -0.13072738 0.11735869 0.09188867 -0.18869247 0.02935725 0.14785345 0.15642226 -0.06596041 0.011348538 0.030248912 0.090811156 0.036785923 -0.045221634 0.02475695 0.09791257 0.2510827 0.23704347 -0.07821074 0.009774047 -0.059195243 0.063745685 0.06840026 0.23295552 0.116427876 0.14850734 -0.21118645 0.20299327 -0.0048324154 -0.061960507 -0.10362924 0.204665 -0.005423251 -0.06404666 0.10157482 0.012299285 -0.013511666 -0.066666484 0.1752219 0.07379664 0.14198826 -0.030725209 -0.12327579 -0.0757251 0.16933669 -0.025652539 -0.028752338 -0.098544456 -0.16017091 -0.053634576
SBARQ 0.07655508 -0.13085227 0.19887362 -0.18999338 0.13222253 0.10031618 0.13591199 0.38283107 0.19688784 -0.1937155 -0.023139872 -0.18716595 -0.28432605 0.025470741 -0.23726141 -0.2179734 0.16328384 0.15842326 0.17040965 -0.20602712 0.0050940015 0.0047409823 0.14329255 0.21329097 0.019346152 0.1648199 -0.2229482 0.23681584 -0.08695797 0.13933657 -0.17911004 0.08658054 0.08408544 -0.09485389 -0.19306263 -0.3111042 -0.13580242 -0.20805597 0.028329456 -0.06667268 -0.00692093 0.12148993 -0.03306652 -0.038973544 -0.15745322 -0.15586792 0.07492615 -0.16029634 -0.103936434 0.16725942 0.12205775 -0.17689094 -0.0150058 -0.19825728 0.0057251905 -0.2554261 -0.057433303 -0.07351176 0.13471437 0.151445 -0.26000303 -0.19370024 0.26798302 0.042576313 -0.14619204 0.12481599 0.22884063 -0.006133393 -0.29498816 0.014931934 0.14412205 0.19949335 0.088137545 -0.14070193 0.114411645 -0.0648075 0.23907994 -0.071512975 -0.22702526 -0.049357884 -0.25540966 0.09313506 -0.011429316 0.2773414 -0.16373993 -0.06675869 0.38495526 -0.12198595 -0.25465807 0.0108360015 0.114885524 -0.07468411 0.2171736 -0.14059262 0.17915449 -0.013804183 0.25780168 0.09641818 0.12764958 0.3342252 -0.26479733 0.28097978 -0.04594182 0.06954855 -0.19550806 -0.148066 -0.13347994 -0.16353527 -0.16530141 -0.01993632 -0.16317451 0.08199319 -0.21567933 -0.080468506 0.15017395 0.15560319 0.16380475 0.17113215 -0.05301474 -0.16649696 0.08886377 0.13186751 0.17568196 0.06027036 0.10840903 0.26836985 -0.25535518 -0.1324194 -0.012308913 0.2379292 0.106523834 0.069050156 0.21103916 -0.15388843 0.08969557 -0.08945474 -0.2295922 0.1637334 -0.004279919 -0.040752947 0.08018618 -0.17281507 0.011742417 0.18910958 -0.011766983 -0.15020819 -0.15100582 -0.09317041 0.21649049 -0.12281915 -0.105674006 -0.0974913 -0.058810983 0.040900018 -0.109955505 0.23605004 0.17714919 -0.007853472 -0.037637036 0.28393862 0.18305765 0.09478604 0.024826994 0.20272402 0.25064477 0.056429796 0.13749367 0.21867873 0.11188789 -0.017441968 -0.09111476 -0.12489185 -0.054883376 0.07897032 0.17463113 0.28418258 -0.04655737 0.10569668 0.10656007 -0.21801193 -0.09913607 -0.15569335 0.16656552 0.081068836 0.058516845 0.07390723 0.20873386 0.15531377 0.059471413 -0.180946 0.25420117 0.14618589 -0.09654507 -0.0524887 -0.24621801 -0.064389735 0.21338868 -0.048684098 -0.11133554 0.24331826
ADVP 0.058864996 0.10847503 0.054426685 -0.038711965 0.15850127 0.04737204 0.1643802 0.3358869 0.043670733 -0.08940028 0.12675445 -0.20447794 -0.17241621 0.008711119 -0.2028543 -0.023551175 0.16687009 0.1148175 -0.13850605 -0.35467494 0.12377171 0.1016029 0.10042328 0.030710738 -0.01508234 0.04369212 0.12813792 0.017081697 -0.12730165 -0.03579852 -0.14141165 -0.09870591 0.058858592 -0.20380001 -0.16582368 -0.1541112 0.15133277 0.023248373 -0.035679378 0.0023989973 -0.015740303 0.039009742 -0.08600251 0.07853229 0.115979984 0.062755644 -0.08656604 -0.041710857 0.031311046 0.14872427 0.040481783 0.036393616 0.021052668 -0.14414991 -0.07520253 -0.18166855 0.11639217 -0.08358417 -0.14742279 0.07824944 -0.062315587 -0.12395659 0.0810787 0.014405767 -0.03243845 0.16356948 0.009515574 0.025364904 -0.07847069 0.022880118 0.025594367 0.068642065 0.076524444 -0.09452161 0.00028231522 -0.071598075 0.26453242 0.00049009826 0.02362878 -0.009949581 -0.09038555 -0.03678215 -0.04593945 -0.09162741 -0.053464923 0.0050327005 0.12400906 -0.05536649 -0.08002077 -0.019571751 0.0639977 0.07137535 0.17946525 0.027334483 0.11281597 -0.021711193 -0.025248239 0.06792933 -0.07644467 0.16708514 -0.19349858 0.18709633 0.088664666 0.0516551 0.0306352 -0.1359545 -0.05130082 0.08559147 -0.051512532 0.07587112 -0.05131193 -0.121264935 -0.043426156 0.048925985 -0.01260838 -0.092163235 -0.0019959698 0.14596619 0.0056537883 0.05036177 0.020232927 0.013702102 0.058016684 -0.0025527363 -0.051035818 0.054659408 -0.058128323 0.09137318 -0.010089937 -0.029334698 0.013113847 -0.08210297 -0.006388881 0.004849718 0.048800357 0.123302564 0.13569643 -0.0121684745 -0.055273537 0.20149162 0.2737525 -0.22222252 -0.10813292 0.09365882 0.06844338 0.099947445 -0.072663136 -0.1478336 0.024258137 -0.17586865 0.10496287 -0.12547503 0.113655135 0.061623327 -0.16079941 0.1797942 0.27709436 0.09685836 0.06312526 0.17256062 0.01765771 0.044584315 -0.061787236 -0.035280135 0.3012532 -0.044167295 0.114755414 0.29043442 0.1137951 -0.029421762 -0.06156927 -0.17400329 0.14936818 0.19249757 0.13526562 0.13868584 -0.1342706 0.07653432 0.052475996 -0.050411418 -0.24767344 0.04964979 0.120866045 -0.017665038 -0.07974766 0.062233523 0.10157109 -0.019999903 0.13515685 0.009588883 0.058646448 0.03782216 -0.031668417 -0.24044403 -0.024525817 0.15924436 0.2101601 -0.012732923 -0.0513314 0.02307072
SBAR -0.025084954 0.051582992 0.011108728 0.007939917 -0.031265616 0.026568914 -0.035735928 0.07029792 -0.012208492 0.0413661 0.05234321 -0.02064033 -0.048343644 0.02219 -0.10107679 0.016463872 -0.017588796 0.016533662 -0.15338589 -0.20226745 0.037764948 0.041848566 0.046279304 0.058342088 -0.02747482 -0.013206624 0.18429312 -0.0386325 -0.16734912 -0.0053851674 -0.057884302 -0.09123145 0.060854953 -0.13440539 0.022417879 0.023912039 0.11268531 0.018473756 -0.08551299 0.032817625 -0.05663388 -0.0127079245 -0.20741068 0.102316335 0.116962045 -0.028056229 -0.06436603 0.026197894 0.05627198 0.0724537 -0.022868333 0.07023391 0.027901184 0.003663923 -0.03510454 -0.04725348 -0.00012782656 -0.12359595 -0.18626355 0.019871471 0.08254678 -0.014208853 -0.08503354 -0.054747406 0.0009630645 0.036760516 -0.049319025 0.019621486 0.09043347 0.041308437 0.04735109 0.11838307 -0.08072835 -0.045590833 0.0014563173 0.11146023 0.14710557 0.011559894 0.16375692 -0.028483052 0.028568037 -0.038742334 -0.03378 -0.11550158 -0.18645914 0.0042818696 -0.03638686 -0.027321154 0.001380315 0.040460423 0.026370212 0.076738596 0.09155252 0.030868698 0.011790069 -0.021690926 -0.08729761 -0.050647482 -0.086991005 0.0044694534 -0.09028031 0.14596426 0.10988524 -0.082053006 0.12230446 -0.08355224 0.043118123 0.1526437 -0.05209335 -0.08604867 0.027881367 -0.1111359 -0.02269031 -0.04230271 0.06380218 -0.18308249 0.0029197298 0.020860706 -0.069339275 0.04491489 -0.029572677 -0.17901777 0.18821336 -0.008427568 -0.11478904 -0.054531157 0.01941387 0.04553499 0.039132934 0.037940945 0.099749714 -0.17881519 -0.14764363 -0.14134666 0.15525855 0.15873148 0.20942025 0.030956706 0.04041778 0.1308671 0.1837607 -0.22094963 -0.08225741 -0.003475503 0.010179161 0.05480818 0.10116503 -0.017773462 -0.09829837 -0.051820386 0.24810429 -0.1283355 0.11668892 0.048330966 -0.17032015 0.058568183 0.23738457 0.10853537 -0.07684634 -0.013546638 -0.038511924 0.054762017 -0.033877246 -0.1138156 0.16167511 0.02393911 0.18853623 0.19391333 0.022062805 -0.055132397 0.023438623 -0.094000205 0.16388345 0.28628224 0.046001952 0.040258944 -0.19181243 0.115431145 0.016778497 0.098205246 -0.13747631 0.12781043 0.11942763 -0.17036983 -0.036652036 -0.008910307 0.07482702 -0.015215595 0.05319962 0.026168922 0.13035086 -0.031573918 -0.0057832585 -0.21887319 0.15024516 0.1834791 0.09128287 -0.12688556 -0.12117974 -0.15593489
NP-TMP 0.24662632 -0.17549026 -0.14125836 0.054576002 0.21771105 -0.08472347 0.19584109 0.5759184 -0.3177895 -0.16636774 -0.016108114 -0.23546627 -0.0396873 0.30340362 0.052873287 -0.11036861 0.20503283 0.3948715 0.07752864 -0.24163194 0.20257057 -0.20397447 0.1030253 -0.11968422 0.22316563 -0.07184961 -0.115256816 0.33494252 -0.040755376 -0.07552641 0.16087756 -0.11741577 0.033308048 -0.23282565 -0.095473655 -0.24962813 0.16433126 0.13359532 0.13829428 -0.26271516 -0.17188461 -0.11146727 -0.040484663 0.31511483 -0.016040621 0.020670122 -0.23317842 0.0264359 0.24628246 0.03626354 -0.14970095 -0.13991357 -0.104191765 -0.19069372 0.056231737 -0.014597874 -0.10446485 -0.17000966 0.11978983 0.09011881 -0.006922828 0.08854362 0.34662762 0.14035755 -0.32463446 0.4321994 0.2585135 0.36426434 -0.2087887 0.20805693 0.24558674 0.16794406 0.16749595 0.011765436 0.29612324 0.066490985 0.23139003 0.21143423 -0.23629294 -0.33194426 -0.2625165 -0.10112549 -0.040238995 0.229494 0.070420764 -0.08603693 0.16472211 -0.04002437 -0.121243216 -0.15777627 0.23637798 -0.06436598 0.31827912 0.18825758 0.26101604 0.09066254 0.15741077 -0.06743721 0.14408815 0.08357187 -0.08237495 0.3338624 0.099483535 0.16365807 -0.19248436 0.0070221643 0.23914126 0.049764827 -0.016732967 -0.2123764 0.044451833 0.004233746 0.10797968 -0.026606523 0.11611272 -0.025830587 0.2276438 -0.10040711 -0.23882368 -0.057541296 -0.09104549 0.05952225 -0.028775608 -0.03912502 -0.26785877 0.12579383 -0.069012865 -0.18409672 0.11055368 0.27077565 -0.00080068613 -0.26748905 0.029499719 -0.091720566 -0.16638906 0.32718617 -0.03767756 -0.10534271 -0.07191801 -0.024983054 0.19672582 0.097298004 0.017670516 0.23016684 0.015002747 0.08308783 -0.0076182517 -0.2484224 0.07838721 0.0041024825 -0.088368416 -0.2943062 -0.19852434 -0.07668372 -0.085107535 0.33462432 0.3524899 0.16543727 0.19264673 0.024348155 -0.022848615 -0.110448584 0.056381784 -0.17748119 0.2039063 0.20017828 -0.0162138 0.088797264 -0.14324577 -0.18059196 -0.08805624 -0.041698363 0.2518324 0.15087143 -0.060719058 0.07664809 -0.13223599 0.25139946 -0.02068491 -0.15065895 -0.33288205 0.058336318 0.20987025 -0.07125954 0.1705924 -0.16184361 0.05637218 -0.15043806 0.08171027 -0.26082915 0.04605908 0.1044546 -0.30715922 0.022136452 -0.07995607 -0.15538979 -0.07093279 0.016128317 0.0043316926 0.19615892
S -0.07964698 0.040185597 -0.19629095 0.078948066 -0.08355186 0.030093871 -0.12777565 -0.10391504 -0.09673759 0.17530435 -0.06735735 0.14468369 -0.035807654 0.094120726 -0.04114353 -0.015894309 -0.05031716 0.055980504 -0.1354702 -0.03004676 0.011540458 -0.08200253 -0.059387133 0.05840885 0.052751772 -0.14081031 0.22013225 0.07524914 -0.239038 -0.016216867 0.054767866 -0.062576115 -0.048951093 -0.24259152 0.061716266 0.014245009 0.1108691 0.048613384 -0.050212827 0.08658011 -0.06834313 -0.08568129 -0.20309432 0.11117159 0.21297164 0.033639695 -0.06989045 0.08890102 0.15655494 -0.007247978 -0.03231184 0.13467835 0.060479794 0.019636871 -0.07106353 -0.040359188 -0.032643523 -0.16681983 -0.27088058 -0.045124386 0.26132038 0.042053122 -0.16291979 -0.08955758 0.06574598 0.006189916 0.07135923 0.13413882 0.10635079 0.123371385 0.019510241 0.06889978 -0.11872224 -0.07407459 0.036912862 0.19562988 0.06430711 0.21005145 0.2520194 -0.1416972 0.020223726 -0.13551857 -0.06612067 -0.17368755 -0.12811665 -0.07921353 -0.04368222 -0.007542943 0.024876742 -0.006632988 -0.04333533 0.04545772 0.047390923 -0.0096781505 0.035425406 -0.06365234 -0.15625902 -0.083004154 -0.0846202 -0.030616716 -0.14792173 0.056486823 0.13474567 -0.17133032 0.113139525 0.016532106 0.13385777 0.17355432 -0.015908092 -0.21540195 0.0613242 -0.14106722 -0.023901638 -0.076255396 0.055032562 -0.18337707 0.04891808 -0.025732657 -0.16831356 0.14269298 -0.08445696 -0.18997073 0.29424515 0.06195172 -0.17834076 -0.03226846 0.15692821 -0.004394074 0.043532375 0.111692615 0.16203162 -0.26635268 -0.26193607 -0.24744794 0.16313323 0.26374882 0.35217184 -0.0058917296 0.09605067 0.20890579 0.22323251 -0.14649758 -0.11609994 -0.11974703 0.025177404 0.10218402 0.13563819 0.038140006 -0.14991297 -0.06086205 0.23898236 -0.16150263 0.041947316 0.0013525722 -0.1562803 0.03944491 0.19404703 0.070027925 -0.08339466 -0.13793883 -0.061882187 0.012356642 0.0075431266 -0.18378267 0.09197608 0.0060028327 0.09193641 0.02658647 -0.02407445 -0.08113204 0.08167632 -0.07890263 0.16789971 0.24316292 -0.083516605 -0.102911174 -0.19001941 0.041211393 -0.0375877 0.17208514 -0.06342782 0.073452346 0.13474928 -0.22898693 -0.09089997 -0.10686911 0.033033457 0.006828391 -0.076735236 -0.04197983 0.05019374 -0.035290685 -0.013865435 -0.23234726 0.20599563 0.21872061 0.10597418 -0.20549 -0.12148197 -0.20620678
FRAG -0.105948135 0.08575771 -0.08884233 0.099815026 0.021636987 0.04300361 0.0026301527 -0.08796009 -0.124360785 0.122595616 -0.021029884 0.025586216 0.042317577 0.058817316 0.039511066 -0.020835299 -0.041733686 0.08004066 -0.11507429 -0.12077933 0.03535872 0.003341078 0.104021095 -0.003596102 0.08524742 -0.042012148 0.09573673 0.020607417 -0.17914851 -0.0755594 0.09643651 -0.08208365 0.04403022 -0.1300725 0.0074939374 -0.010344484 0.064213105 0.07284044 -0.019467363 -0.058151606 -0.07248253 -0.044042107 -0.17273982 0.10602918 0.13466962 0.0015553237 -0.06968718 0.061017845 0.055377193 -0.03405721 -0.017170096 0.056123834 -0.0017657878 -0.08399377 -0.023668606 -0.13701592 -0.04735617 -0.18911764 -0.12459214 -0.085732564 0.06403491 -0.08243302 0.07610771 -0.044172753 -0.123309456 0.09696338 0.051147833 0.18748166 -0.10142856 0.14742053 -0.049510136 0.1454513 -0.007843489 0.023697877 -0.0033342424 0.09476471 0.07264764 0.092606686 0.039431702 -0.14363863 -0.049237255 -0.1801664 0.025194587 -0.050391383 -0.08257975 -0.07991658 0.07240827 -0.104009144 -0.047966234 0.023104835 -0.027310288 0.03281878 0.12739493 -0.025211714 0.17964341 0.02924768 0.0020395909 0.008543736 0.04218134 -0.009636809 -0.21664004 0.060475916 0.048955247 -0.005290375 0.004454381 -0.121208504 0.060054496 0.19562097 -0.05186975 -0.17680629 0.032526825 -0.099497534 -0.035946403 -0.055476464 0.02124964 -0.042978827 0.062364712 -0.11361664 -0.05543398 0.0028852755 -0.049676303 -0.047866628 0.1325486 0.014270966 -0.08200662 -0.03860304 0.02622348 0.06047808 0.008354737 0.04231039 0.14489836 -0.123942696 -0.123300314 -0.080873266 0.008410599 0.1921482 0.20666504 0.028146653 0.035512958 0.14746499 0.21167663 -0.044586334 -0.09745957 -0.090260506 0.032929715 0.061065353 0.033855986 0.06377524 -0.029211117 0.024735164 0.13904451 -0.05599043 0.041483566 0.07461139 -0.097620435 0.0021847503 0.100988135 0.031055372 0.0028464342 -0.0829712 -0.026091881 0.058971222 0.09575053 -0.11119274 0.01865796 -0.019577108 -0.0062524434 -0.0461555 -0.016334541 -0.09664912 0.06406129 0.017918786 0.077231914 0.063267864 -0.028773261 -0.08402371 -0.09016787 0.0049112183 0.03232819 0.07994754 -0.024417784 0.01105364 0.063617066 -0.06732734 -0.029250834 -0.12966353 -0.051913094 0.04566636 0.01908263 0.019237574 -0.02555305 0.06010752 -0.02430676 -0.07164298 0.1991426 0.069949575 -0.004793869 -0.08693303 0.022339977 -0.08390584
UCP -0.028176507 0.055620693 -0.018626813 -0.0123937335 -0.07023912 -0.026113369 -0.015128488 0.12064251 -0.16294892 0.014365424 0.054609984 -0.02837058 0.020580923 0.04950281 -0.030591937 -0.0061646528 0.035627343 0.117882766 -0.14680693 -0.26689819 0.006171704 -0.047682732 0.099829115 0.018312238 0.015608937 -0.05071732 0.16390541 0.0531434 -0.18578081 -0.01363687 0.012920145 -0.07296882 0.104142055 -0.15931147 0.040649615 -0.04015902 0.15599069 0.0057833767 -0.06359242 0.0048828563 -0.12352567 -0.046550862 -0.25360695 0.1847207 0.12828122 -0.072059065 -0.078679144 0.05034219 0.058299433 0.03565232 -0.050058957 0.09323346 -0.036847807 -0.070473805 -0.0028188222 -0.12418276 -0.04987342 -0.19977424 -0.12175472 0.03667462 0.06533016 -0.083425894 0.022251938 -0.038839426 -0.13751836 0.14258401 0.0068880697 0.09418953 -0.019935178 0.14122929 0.052274648 0.20582622 -0.04883747 0.011251092 0.046068225 0.22758305 0.22363019 0.07052297 0.08708431 -0.109317094 0.004379993 -0.06516631 0.018027198 0.008127698 -0.20670213 -0.04183971 0.013276838 -0.046853382 0.027923243 0.0653496 0.06849388 0.040019296 0.1595924 0.022272803 0.1272903 -0.024597282 0.044771668 -0.085122325 0.044974506 -0.05092374 -0.14692496 0.23126319 0.10692375 -0.03755178 0.07541023 -0.15773246 0.05253754 0.25791782 -0.061754007 -0.18591581 0.055470247 -0.07476735 -0.061393294 -0.07757752 0.08708245 -0.14322826 0.053431217 -0.055469185 -0.14989051 -0.005361342 -0.09031224 -0.17793882 0.20745578 -0.03867077 -0.19438867 -0.074010365 -0.011008503 0.05966193 0.060817964 0.08938692 0.1264669 -0.24244995 -0.17524862 -0.16005626 0.10173832 0.22888438 0.26576704 0.013149537 -0.0045276596 0.10295996 0.1460857 -0.14534229 -0.0680462 -0.012659417 0.00022131349 0.046867285 0.14457262 -0.005672464 -0.094198324 0.009564496 0.21483177 -0.18204004 0.061940685 0.06960914 -0.19056766 0.051518884 0.2051428 0.118591554 -0.05989339 -0.07346588 -0.0170668 0.054806802 0.062088076 -0.15043537 0.09414635 0.05760406 0.17053042 0.09083672 -0.07008074 -0.08032161 9.906727e-05 -0.022008615 0.13534087 0.23578213 0.01206547 -0.005364843 -0.24377592 0.13480093 -0.007247783 0.066484585 -0.09732451 0.15059198 0.09002047 -0.14735015 -0.0068959664 -0.08901567 -0.006244559 -0.017596846 0.059417427 0.016981883 0.05937666 -0.0027110775 -0.07436909 -0.17710245 0.22494277 0.081527844 0.013967042 -0.1355339 -0.12718798 -0.11294994
SINV 0.019508114 0.016898448 0.031599708 -0.019547723 -0.0029695933 0.009685306 0.038657337 0.18167341 -0.09806082 -0.025591413 0.062905796 -0.07668012 -0.019028872 0.049986932 -0.062499087 -0.04727274 0.081227034 0.106474295 -0.07371646 -0.25596818 0.02807772 -0.02172245 0.13383253 0.021344375 0.023551859 0.0040249373 0.0623613 0.071638376 -0.13181473 0.022127135 -0.032570247 -0.039937615 0.09412433 -0.10812487 -0.033317793 -0.05885528 0.06306058 -0.031202985 -0.057661973 -0.039931376 -0.07619495 -0.0033578952 -0.17329592 0.11155129 0.04536393 -0.049944088 -0.070566855 -0.006779575 -0.0029161768 0.06447302 -0.031926308 0.0056755375 -0.06224947 -0.082888454 -0.01283166 -0.15105075 -0.046407524 -0.17086747 -0.07587331 0.031732634 -0.032450452 -0.10417788 0.08541422 -0.02289384 -0.14496501 0.14015429 0.03156216 0.064643204 -0.08656003 0.07714452 0.067695476 0.20044968 -0.016684711 -0.004708361 0.050357684 0.11288356 0.2155861 0.014249156 -0.012439007 -0.06459098 -0.035223007 -0.034397427 0.012672265 0.0659339 -0.16984761 -0.043323804 0.081463486 -0.07060076 -0.033315435 0.049597964 0.06549406 0.03262982 0.14678553 -0.0072911773 0.1193782 0.012816607 0.0771059 -0.041808385 0.05469228 0.036599644 -0.13831909 0.19771644 0.07253836 0.029630082 0.030797357 -0.14869215 0.024448838 0.14050892 -0.07743452 -0.14030792 0.031082267 -0.055504624 -0.06810661 -0.05676645 0.10017628 -0.06462046 0.07628982 -0.019888109 -0.11367584 -0.040136095 -0.03369442 -0.08535256 0.17899647 -0.034070175 -0.12101246 -0.00066189707 -0.06623673 0.056741994 0.023076745 0.097542875 0.09660124 -0.14876848 -0.0698771 -0.12391127 0.07233564 0.12978552 0.12885813 0.043178868 -0.02194431 0.092592254 0.1257679 -0.12326432 -0.058348093 0.03815645 0.01666816 0.022990016 0.064793944 -0.023324676 -0.0063518435 0.004435499 0.11918007 -0.13748585 0.056576848 0.038667727 -0.15068091 0.09544146 0.16700919 0.10605306 -0.022001062 0.025211088 0.009120625 0.055520393 0.034089223 -0.061321743 0.09785974 0.050593693 0.11317909 0.13570872 -0.0145451985 -0.055355966 -0.0048329453 -0.030410588 0.10503423 0.17625092 0.032568928 0.04303459 -0.15556742 0.09780426 0.019643389 -0.02634408 -0.1224377 0.08123931 0.07251714 -0.07438183 0.025986128 -0.051350884 0.031935 -0.0006496139 0.091093644 -0.026002083 0.08158709 0.015713101 -0.08530461 -0.115339965 0.11278635 0.048132453 0.05743731 -0.11196172 -0.1006965 -0.043670136
PRN 0.00033604156 0.004650737 -0.0043382607 0.0091959 -0.0014315213 0.008813816 0.014660879 0.022775339 -0.015460019 0.0055537014 0.0046420675 -0.010147243 -0.003668521 0.017908815 -0.0145906685 -0.01137832 0.016090486 0.019413311 -0.014817059 -0.037758242 0.0104899565 -0.00046850325 0.024615541 0.0103562055 0.016692888 -0.0066528777 0.005758621 0.018187866 -0.028291889 0.000188712 0.002133735 -0.003849318 0.016925149 -0.027867317 -0.013545146 -0.013214225 0.008951481 -0.006722295 -0.0068971463 -0.01188416 -0.0196776 0.007881667 -0.024210623 0.0051574255 0.012422717 -0.0016289379 -0.014757008 0.001996709 0.0028248343 0.015622046 -0.009107922 0.0022463922 -0.0115110725 -0.018499564 0.0005183245 -0.0351675 -0.0059528933 -0.03129494 -0.019030552 0.0066409204 -0.00044527717 -0.023111638 0.015379631 -0.007952776 -0.026838878 0.017437963 0.009889279 0.019588402 -0.021385975 0.021944715 0.009010576 0.03100789 0.0033226607 -0.005746215 0.008378172 0.009457701 0.030486634 0.0084759975 -0.009891392 -0.020879319 -0.011906685 -0.019051487 -0.0015181965 0.014261447 -0.027078697 -0.014971177 0.027771417 -0.021726832 -0.015159296 0.006870356 0.0011088541 0.006899169 0.024799414 -0.011759261 0.032167878 0.0053487527 0.002751575 -0.008354882 0.015618774 0.017613836 -0.042138424 0.020591943 0.009371513 0.0046795486 0.0074932603 -0.024047425 0.00081976876 0.021316955 -0.022703284 -0.036019232 0.0011116479 -0.0176762 -0.016713008 -0.0054592886 0.021574026 -0.0009015701 0.02974623 -0.005693044 -0.027186608 -0.010796704 -0.0034564415 -0.009677201 0.042851303 -0.002830246 -0.0075257774 0.013908803 -0.013530246 0.016844133 0.00066321087 0.026935957 0.029900698 -0.023109557 -0.016869348 -0.030439058 0.017879093 0.03219817 0.03289175 0.010264355 0.007897155 0.03767542 0.033730272 -0.023206629 -0.014667999 0.00054022216 0.005325798 0.009894874 0.0023827236 0.0047017774 0.003799906 -0.0042851167 0.02388965 -0.023614638 -9.456568e-05 0.011614695 -0.027004333 0.017804055 0.03320474 0.019299282 0.0029999947 0.008512926 -0.00031349692 0.011844727 0.012067548 -0.0062050326 0.02071036 0.0044904095 0.013425585 0.011880338 0.0020257363 -0.009118686 0.0033299266 -0.008416448 0.013563113 0.025590578 -0.0010423365 -0.0057298606 -0.024538562 0.010893207 0.010158123 -0.002617874 -0.025740506 0.0041275257 0.014699315 -0.010731727 -0.001679913 -0.010294102 0.0061049424 0.007826782 0.013852594 -0.013390116 0.009164914 0.013652399 -0.010107522 -0.0183416 0.020594323 0.012619474 0.020594807 -0.02853954 -0.019699523 -0.002078118
LST -0.00036332762 0.018418359 -0.0057786596 0.030411715 0.00916415 0.007866702 0.048438083 0.11542771 -0.07605616 0.00391039 0.029653069 -0.04974299 -0.018382154 0.051489513 -0.030776134 -0.04648974 0.043397814 0.08176068 -0.06544758 -0.15093617 0.038172305 -0.011614069 0.071476325 0.0075322227 0.048402324 -0.018087197 0.0394011 0.058111124 -0.10444699 -0.019865792 0.0025666282 -0.039304566 0.049768228 -0.09476475 -0.02916194 -0.052885324 0.057034187 0.0014868043 -0.013731479 -0.036857292 -0.06762989 -0.004512722 -0.10043739 0.06347698 0.042405885 -0.016476918 -0.052361492 0.02406643 0.028800443 0.041392528 -0.028721226 0.013577761 -0.027996225 -0.057493944 -0.0042733713 -0.09360383 -0.010357633 -0.11504608 -0.06294057 0.021198915 0.0063292114 -0.05140024 0.06050075 -0.024493441 -0.09022353 0.09229052 0.038197592 0.08891517 -0.07095939 0.06584832 0.037442572 0.11781709 0.008031604 -0.021574646 0.040911213 0.060333412 0.11781272 0.03972826 -0.011319804 -0.08448372 -0.04217304 -0.05521246 0.0013556004 0.03228655 -0.08173998 -0.037208818 0.06759288 -0.06352976 -0.03204312 0.023757333 0.022020543 0.020239938 0.10948271 -0.0047513745 0.1203471 0.027456846 0.014832165 -0.022657927 0.029431287 0.028299024 -0.122282706 0.10280005 0.052372828 0.0242771 0.015293173 -0.08650964 0.023681425 0.08989956 -0.046389066 -0.12263596 0.022068761 -0.059818234 -0.039925493 -0.025984464 0.06312526 -0.019062338 0.08454425 -0.0121934675 -0.081974246 -0.013013902 -0.018119356 -0.045482345 0.13564815 -0.022481162 -0.06031264 0.022276314 -0.04108309 0.041878346 0.011410585 0.092366345 0.099587925 -0.10751138 -0.05050527 -0.09552502 0.038606185 0.1385674 0.11896368 0.026397133 0.0108010825 0.10627723 0.13592836 -0.07768667 -0.055060204 0.0092508 0.019962298 0.04530636 0.03366517 -0.017361842 0.0017070421 -0.011498553 0.09398045 -0.09344616 0.0130964015 0.025859866 -0.09974781 0.08063091 0.12400361 0.07501565 0.004011274 0.020497307 -0.0089612035 0.04548576 0.028672086 -0.059174415 0.090118736 0.024059197 0.06345712 0.055150624 0.008308185 -0.046740558 0.00034704016 -0.044247206 0.07741055 0.11877942 0.011628934 -0.0018902931 -0.108731575 0.05156908 0.03003421 -0.0026937993 -0.0921245 0.038168546 0.072799206 -0.058075946 0.0017969632 -0.051855493 0.023011062 -0.008842625 0.05196148 -0.03939135 0.036119375 0.027991468 -0.052527815 -0.089956194 0.074525476 0.029398032 0.044091187 -0.07487979 -0.061006926 -0.018482767
[SEP] 0.0032077157 -0.0044755707 -0.003672737 -0.000875572 0.0008490038 -0.0005171108 -0.0026021374 0.0032896257 0.0043914057 -0.0037060487 0.0049027824 0.003683324 -0.0037303627 -0.0009499788 0.002126019 0.0035298027 -0.0018318439 -0.0034865416 0.002362417 -0.0045193043 -0.0029251515 -0.00064174057 0.0027404584 -0.0028434705 0.0023923921 -0.00021747351 0.0013336312 0.0032019638 0.0007088149 0.0038542866 -0.00016120076 -0.004131852 0.004589249 -0.0024291014 0.002360953 -0.0019513917 -0.0036647595 -0.0032563244 0.002338667 -0.00032971622 0.00073013426 -0.00446414 -0.0025732769 -0.0030272114 0.004206394 -0.0043487167 0.0025124217 -0.00043067575 9.468794e-05 0.004399879 -0.0017927194 -0.0034686697 0.0003817892 0.0038714171 0.0045604315 -0.0018423557 0.0013664031 0.0024713052 -0.0026460243 0.0034262668 -0.0032264853 0.001050421 0.0022936284 0.0021925557 -0.0023331428 0.0013212109 0.003654982 0.004305844 -0.004756266 0.002787373 0.002484032 -0.000797379 0.0045934413 -0.0020905053 -0.000874362 -0.003431654 -0.0018883384 0.00012133717 -0.0016357672 -0.0027086318 0.0032844364 -0.0026514279 -0.0031608152 0.0038204836 0.004825592 0.001997459 1.31630895e-05 0.00039464593 -0.00048077703 0.0034313262 -0.0031264974 0.00025380493 0.0021460748 -0.0010557068 0.00044694066 0.0018550706 0.004855026 0.0010878801 0.0047500813 -0.0029149223 0.0024003303 -0.0018141889 -0.002132405 0.0006098783 -0.00206365 -0.0028135872 0.0015715063 0.004168829 -0.0032728326 -0.0045569716 -0.0016658843 0.0037636172 -0.004844508 0.0047991383 -0.00020912409 0.0011524021 -0.00092483044 -0.0028810548 0.0015503478 0.0030975437 -0.0035264527 -0.0005866587 0.00077970984 0.002124486 0.0035706747 -0.0017733478 0.003637694 -0.002785486 -0.0010974132 0.0045423806 0.0026911616 -0.0042425287 -0.00082782266 -0.004419111 -0.00082093955 0.002827809 -0.0037091493 0.002755034 0.0030450297 -0.0018852401 -0.0048279073 -0.0012594092 -0.0012765122 0.0018792677 0.0044603418 0.000997951 -0.0010557687 0.0014847827 -0.00340186 -0.0006466758 -0.0007416177 0.004802432 -0.0029047823 -0.0035201216 0.0011805737 0.0013173842 -0.0035729862 -0.0029388773 -0.0005915117 -0.0016514122 -0.004487865 -0.0020247602 -0.0014828778 0.003251332 0.0004869485 0.00079940556 0.00013916969 -0.0016920698 0.0015511847 0.00035583257 0.0029914188 -0.0003876102 -0.0044506337 0.00044137717 0.0049619093 -0.002624587 -0.0026082336 -0.0012593758 0.004291724 -0.00041582226 0.004709183 -0.004168055 0.0045085205 -0.0048565613 0.00459978 0.0009363568 0.0013302243 -0.0029293012 0.004219593 0.0030218149 -0.0027435697 -0.0047494103 0.0034842002 -0.002767966 -0.0046606613 0.0012986779 -0.0024890052 -0.0036800252 0.0048652794 -0.00079291227
[CLS] -0.00075550674 -0.0020172524 -0.002199427 -0.0023146928 -0.0027978576 -0.0026509024 -0.004011152 0.0047594225 0.003199532 -0.0018033469 0.0012392211 -0.0038212477 0.0037615502 0.004152367 0.00039471508 -0.0034164954 -0.001478864 0.0023669838 -0.001469692 0.0015882361 0.0047043576 0.002176553 -0.0025727404 0.0027335465 -0.0014395964 -0.0031969703 0.0035039007 -0.0046269665 -0.0005653286 -0.00069267035 -0.0042079734 -0.0005511999 0.0027986288 -0.0026338268 -0.003513068 0.0031001342 -0.0017132199 -0.003909779 0.00014668464 -2.4901628e-05 0.0037704527 0.00028465033 0.0039412295 -0.004906391 0.0020166337 0.0031090546 0.00051472185 -0.0014182054 0.0005133069 -0.00041956067 -0.004054135 -0.0033917367 0.0006000769 -0.0010089374 0.0047747088 -0.00047471403 0.0030593479 0.0010230684 0.0040498446 -0.0046452605 0.0011963642 -0.00072562933 0.0010774994 -0.00010990023 -0.003320316 0.0045252275 -0.0014216995 0.0009571564 -0.003220849 0.001857109 0.004997902 -0.00059812784 0.0032901084 -6.216049e-05 0.0039640903 0.0048254644 -0.00019564391 -0.0008491719 -0.004760808 0.0049374364 -0.0012664831 0.0010945952 -0.00084944366 0.004163674 0.004171889 0.0007684422 0.001442833 0.003217032 0.0011238504 0.003222158 7.336974e-05 -0.0011427355 0.0026536263 -0.0017076373 -0.0013078058 0.004395864 -0.004577347 -0.001706822 -0.0014620638 0.0028344644 0.0039717485 -0.0032258034 0.002897265 -0.00010883689 -0.0045159315 -0.0012213349 -0.000792166 -0.002240411 -0.00039689065 -0.0026192176 0.0029702974 0.0046516894 -0.0007938325 0.0016883707 -0.0003740084 -0.00034981608 -0.0035052812 0.0007284522 0.0019513464 0.0034550356 0.0032694198 0.0017683017 0.002330835 -0.003716055 -0.0006932497 -0.0028913212 0.0034005237 0.0039133215 -0.0021370114 0.0005768287 0.0025547016 0.00090474245 0.00039295794 -0.00337008 0.0049163387 -0.0036298514 -0.0030168772 -0.002833041 -0.0031739818 -0.0017455304 -0.004700148 0.00058906677 -0.001875118 -0.0012756443 0.0028924705 0.0017752409 0.00091045856 -0.0006870258 0.0049387384 0.00014328003 0.0025077271 0.004518875 -0.0048832893 -0.004577687 0.0049614133 0.0013683939 -0.00094279053 0.002362032 -0.0021577023 -0.0031988192 -0.004128704 0.0036050593 -0.0012246859 -0.003771584 -0.0029551936 0.0030877613 -0.0012398458 -0.0030728949 -0.0008089912 -0.00073677656 -0.0016274225 -0.0010446191 0.0020528662 0.0007233 -0.0017451715 0.0013461864 0.0026144707 -0.004595406 -0.0037791694 0.003148184 -0.0044690524 0.00026411176 -0.004496909 0.004184914 -0.0021467686 -0.003310249 -0.00069188594 -0.0005568373 0.003766513 0.0045547616 -0.00017538667 0.0013467884 0.002368598 7.137656e-05 -0.0028900015 -0.0002972102 0.0010914874 0.0041508568 -0.0017961633 -0.0049227728
鐪 0.0026914633 0.0049053445 -0.0035273873 -0.00029125332 -0.0025322675 0.0032175123 0.004828651 -0.0001665318 0.0025702226 0.00326934 0.0022045206 -0.0040156175 0.0015513217 -0.0007431936 -0.0010805405 0.0027010418 -0.00065853 0.004963734 -0.00031958937 0.00013181448 -0.0011468196 -0.004256748 -0.0049055754 0.002475382 -0.0033104182 0.0014827478 0.0013871908 -0.0035033918 -0.0015680087 -0.002903781 -0.004282278 1.9083023e-05 0.004893527 -0.0033379411 -0.0021809267 0.0041651633 0.0046492564 0.004907702 -0.004946159 0.0025239766 -0.0033210455 0.0034399224 0.0030704485 -0.0016878045 0.0034420681 -0.003933196 0.0022747826 0.0022901858 0.0029616402 0.0029397511 -0.0013316738 0.0019478011 -0.0030542635 -0.0032294858 0.0013715076 -0.004733094 -0.00014954567 0.0005455685 0.0040022302 -0.003500794 -0.0011614775 -0.002053069 -0.00261397 -0.0002359438 0.0023056066 -0.0024909568 -0.000822829 0.004328189 -0.0006542182 -0.0017859078 0.0037158178 0.00060960173 -0.00017023683 0.0047298875 0.004062803 0.0017089271 0.0016791272 -0.0011423564 0.00404726 0.0025304426 -0.002712872 -0.0030645693 -0.00029967667 -0.003960228 0.0016833544 -0.0046122097 -0.0007722843 0.0016780865 0.0015229118 0.0015798807 -0.0045318343 0.0017095911 0.0026731682 0.0017339647 0.003896458 0.0008277738 0.0031351089 0.0044175563 -0.0004713285 -0.00040162087 0.0011135065 -0.0037667477 0.0028141772 -0.0025000584 -0.0016355444 -0.00091630936 0.0041081333 0.0011232031 -0.0004538238 -0.0014226377 -0.0010559738 -0.00064290164 -0.0025414599 -0.0020641661 9.3722345e-05 0.0022773338 0.0008980715 0.0034513413 0.0003198576 -0.001612165 -0.003686657 0.0030035032 0.0034849667 -0.0030291534 0.002341994 0.0047492706 -0.003190342 -0.0014384723 -0.004545151 0.0016140556 -0.0017201304 0.0010221052 0.0047197402 -0.0041784667 -0.004656525 0.00085834024 -0.004017208 -0.0045337533 -0.0046776105 -0.00014420033 -0.0005508518 0.00037188292 -0.0006699121 0.0045199753 0.004393865 -0.0031786633 0.0043479227 -0.004514054 -0.0006692147 0.0012699175 -5.5084227e-05 -0.001900425 0.00023441434 0.00050276634 -0.004704486 -0.002444942 -0.0038554298 0.0019035458 -0.00044245005 -0.0037417924 0.0028178275 0.00011886835 0.0013489425 0.0027154207 -0.0021151423 0.003922472 -0.0039288523 -0.0017214811 -0.003683256 0.00048701288 -0.0036951376 0.0045313444 0.002767136 -0.003615545 0.0030872119 0.0033021413 -0.0037076427 0.0023273944 -0.003860749 0.0046603344 0.0023452044 -0.00011452556 -0.0044708787 -0.0004473126 -0.00013550044 0.00045334935 0.0043311324 -0.0013880837 -0.0043410086 -0.00441687 -0.0005287743 0.00068593264 4.361749e-05 -0.0011014688 0.004273783 5.321622e-05 0.0032093357 0.0019955134 -0.003601594 -0.0010618186
